digraph Tree {
node [shape=box] ;
0 [label="X[2] <= 8.5\ngini = 0.337\nsamples = 56\nvalue = [44, 12]"] ;
1 [label="X[1] <= 4.5\ngini = 0.484\nsamples = 17\nvalue = [7, 10]"] ;
0 -> 1 [labeldistance=2.5, labelangle=45, headlabel="True"] ;
2 [label="X[0] <= 101.0\ngini = 0.469\nsamples = 8\nvalue = [5, 3]"] ;
1 -> 2 ;
3 [label="gini = 0.0\nsamples = 4\nvalue = [4, 0]"] ;
2 -> 3 ;
4 [label="X[1] <= 2.5\ngini = 0.375\nsamples = 4\nvalue = [1, 3]"] ;
2 -> 4 ;
5 [label="gini = 0.0\nsamples = 1\nvalue = [1, 0]"] ;
4 -> 5 ;
6 [label="gini = 0.0\nsamples = 3\nvalue = [0, 3]"] ;
4 -> 6 ;
7 [label="X[0] <= 141.0\ngini = 0.346\nsamples = 9\nvalue = [2, 7]"] ;
1 -> 7 ;
8 [label="X[0] <= 30.0\ngini = 0.219\nsamples = 8\nvalue = [1, 7]"] ;
7 -> 8 ;
9 [label="X[1] <= 6.0\ngini = 0.5\nsamples = 2\nvalue = [1, 1]"] ;
8 -> 9 ;
10 [label="gini = 0.0\nsamples = 1\nvalue = [1, 0]"] ;
9 -> 10 ;
11 [label="gini = 0.0\nsamples = 1\nvalue = [0, 1]"] ;
9 -> 11 ;
12 [label="gini = 0.0\nsamples = 6\nvalue = [0, 6]"] ;
8 -> 12 ;
13 [label="gini = 0.0\nsamples = 1\nvalue = [1, 0]"] ;
7 -> 13 ;
14 [label="X[2] <= 12.5\ngini = 0.097\nsamples = 39\nvalue = [37, 2]"] ;
0 -> 14 [labeldistance=2.5, labelangle=-45, headlabel="False"] ;
15 [label="X[2] <= 11.5\ngini = 0.298\nsamples = 11\nvalue = [9, 2]"] ;
14 -> 15 ;
16 [label="gini = 0.0\nsamples = 7\nvalue = [7, 0]"] ;
15 -> 16 ;
17 [label="X[0] <= 30.0\ngini = 0.5\nsamples = 4\nvalue = [2, 2]"] ;
15 -> 17 ;
18 [label="gini = 0.0\nsamples = 1\nvalue = [1, 0]"] ;
17 -> 18 ;
19 [label="X[0] <= 111.5\ngini = 0.444\nsamples = 3\nvalue = [1, 2]"] ;
17 -> 19 ;
20 [label="gini = 0.0\nsamples = 2\nvalue = [0, 2]"] ;
19 -> 20 ;
21 [label="gini = 0.0\nsamples = 1\nvalue = [1, 0]"] ;
19 -> 21 ;
22 [label="gini = 0.0\nsamples = 28\nvalue = [28, 0]"] ;
14 -> 22 ;
}